{
  "runtime_id": "r7_world_model_runtime_v0",
  "selection_rule": "use scratch_no_action_ruleaug for hidden_state and macro_action groups; use scratch_full_ruleaug for future_proxy group",
  "claim_boundary": "scratch_only_runtime_export_no_warmstart_no_external_pretrained_model",
  "global_priors": {
    "enemy_opening_class": "pressure_open",
    "enemy_tech_path": "tech_path_present",
    "macro_action_label": "expand_now",
    "production_tempo_label": "low",
    "future_winner": "loss",
    "future_game_length_bucket": "short",
    "future_pressure_proxy": "high_pressure"
  },
  "rule_tables": {
    "Terran|Protoss": {
      "enemy_opening_class": "pressure_open",
      "enemy_tech_path": "tech_path_present",
      "macro_action_label": "expand_now",
      "production_tempo_label": "low",
      "future_winner": "loss",
      "future_game_length_bucket": "long",
      "future_pressure_proxy": "low_pressure"
    },
    "Protoss|Terran": {
      "enemy_opening_class": "pressure_open",
      "enemy_tech_path": "upgrade_path",
      "macro_action_label": "expand_now",
      "production_tempo_label": "low",
      "future_winner": "win",
      "future_game_length_bucket": "long",
      "future_pressure_proxy": "high_pressure"
    },
    "Zerg|Protoss": {
      "enemy_opening_class": "tech_open",
      "enemy_tech_path": "tech_path_present",
      "macro_action_label": "add_production",
      "production_tempo_label": "low",
      "future_winner": "win",
      "future_game_length_bucket": "short",
      "future_pressure_proxy": "high_pressure"
    },
    "Protoss|Zerg": {
      "enemy_opening_class": "fast_expand",
      "enemy_tech_path": "low_tech",
      "macro_action_label": "defensive_hold",
      "production_tempo_label": "low",
      "future_winner": "loss",
      "future_game_length_bucket": "short",
      "future_pressure_proxy": "high_pressure"
    },
    "Protoss|Protoss": {
      "enemy_opening_class": "pressure_open",
      "enemy_tech_path": "tech_path_present",
      "macro_action_label": "defensive_hold",
      "production_tempo_label": "low",
      "future_winner": "loss",
      "future_game_length_bucket": "short",
      "future_pressure_proxy": "low_pressure"
    },
    "Terran|Zerg": {
      "enemy_opening_class": "pressure_open",
      "enemy_tech_path": "production_path",
      "macro_action_label": "expand_now",
      "production_tempo_label": "low",
      "future_winner": "win",
      "future_game_length_bucket": "medium",
      "future_pressure_proxy": "high_pressure"
    },
    "Zerg|Terran": {
      "enemy_opening_class": "pressure_open",
      "enemy_tech_path": "upgrade_path",
      "macro_action_label": "increase_production_tempo",
      "production_tempo_label": "medium",
      "future_winner": "loss",
      "future_game_length_bucket": "medium",
      "future_pressure_proxy": "high_pressure"
    },
    "Zerg|Zerg": {
      "enemy_opening_class": "pressure_open",
      "enemy_tech_path": "low_tech",
      "macro_action_label": "defensive_hold",
      "production_tempo_label": "low",
      "future_winner": "loss",
      "future_game_length_bucket": "short",
      "future_pressure_proxy": "low_pressure"
    }
  },
  "components": {
    "hidden_macro_arm": {
      "variant_name": "scratch_no_action_ruleaug",
      "model_config": {
        "input_dim": 64,
        "hidden_dim": 64,
        "action_count": 7,
        "action_embed_dim": 8,
        "opening_classes": 3,
        "tech_classes": 4,
        "macro_action_classes": 7,
        "tempo_classes": 2,
        "future_winner_classes": 2,
        "game_length_classes": 3,
        "future_pressure_classes": 2,
        "use_action_conditioning": false
      },
      "label_encoders": {
        "enemy_opening_class": {
          "fast_expand": 0,
          "pressure_open": 1,
          "tech_open": 2
        },
        "enemy_tech_path": {
          "low_tech": 0,
          "production_path": 1,
          "tech_path_present": 2,
          "upgrade_path": 3
        },
        "macro_action_label": {
          "add_production": 0,
          "add_tech": 1,
          "defensive_hold": 2,
          "delay_move_out": 3,
          "expand_now": 4,
          "increase_production_tempo": 5,
          "move_out_window_open": 6
        },
        "production_tempo_label": {
          "low": 0,
          "medium": 1
        },
        "future_winner": {
          "loss": 0,
          "win": 1
        },
        "future_game_length_bucket": {
          "long": 0,
          "medium": 1,
          "short": 2
        },
        "future_pressure_proxy": {
          "high_pressure": 0,
          "low_pressure": 1
        }
      },
      "state_dict": {
        "encoder.0.weight": [
          [
            -0.08900582045316696,
            -0.23592793941497803,
            -0.0618046373128891,
            0.03922256827354431,
            -0.06680960953235626,
            -0.2120199352502823,
            -0.2115856260061264,
            -0.15878009796142578,
            -0.03367096185684204,
            -0.10361206531524658,
            0.08873578906059265,
            0.012733802199363708,
            -0.05329024791717529,
            -0.07342015206813812,
            -0.13645227253437042,
            -0.2090565413236618,
            0.05509510636329651,
            -0.26772159337997437,
            0.015872318297624588,
            -0.09805336594581604,
            0.09571939706802368,
            -0.021706819534301758,
            -0.07734498381614685,
            -0.1251661628484726,
            -0.09250393509864807,
            -0.13732093572616577,
            -0.006681546103209257,
            0.03214727342128754,
            0.06631842255592346,
            -0.2899802327156067,
            -0.04937136918306351,
            -0.14819306135177612,
            -0.10404571890830994,
            -0.09268604964017868,
            -0.09110037982463837,
            0.11480414867401123,
            -0.17407403886318207,
            -0.23981983959674835,
            -0.13974133133888245,
            -0.07618546485900879,
            -0.07759235799312592,
            -0.24860912561416626,
            -0.19707317650318146,
            -0.05082462728023529,
            0.006115973461419344,
            -0.09201020747423172,
            -0.16790485382080078,
            -0.18631702661514282,
            -0.09946243464946747,
            -0.11672237515449524,
            -0.22752976417541504,
            0.09985099732875824,
            0.00994019489735365,
            -0.22120611369609833,
            -0.09876906871795654,
            -0.1279790997505188,
            -0.2719302773475647,
            -0.13488240540027618,
            -0.07970526814460754,
            -0.06145162880420685,
            -0.17230552434921265,
            -0.12441205233335495,
            -0.11289272457361221,
            -0.21744145452976227
          ],
          [
            -0.042379915714263916,
            0.0048941969871521,
            -0.07132615149021149,
            -0.054591789841651917,
            0.04198470711708069,
            0.07194103300571442,
            0.0017514675855636597,
            -0.048623085021972656,
            0.06844039261341095,
            -0.0685213953256607,
            -0.02934040129184723,
            0.11792129278182983,
            0.02302156388759613,
            0.008807659149169922,
            0.04213936626911163,
            -0.03048175573348999,
            0.10694746673107147,
            -0.10195206105709076,
            -0.03438468277454376,
            -0.021608427166938782,
            -0.05143411457538605,
            -0.03093765676021576,
            0.07746915519237518,
            0.06858675181865692,
            0.006950438022613525,
            0.10889844596385956,
            -0.0882563441991806,
            -0.07453735172748566,
            0.05647704005241394,
            -0.006718739867210388,
            -0.11391107738018036,
            -0.08652006089687347,
            -0.07609610259532928,
            0.09652639925479889,
            0.056608185172080994,
            0.09670113027095795,
            -0.0930614173412323,
            -0.12187071144580841,
            -0.08197137713432312,
            0.013372689485549927,
            -0.02468840777873993,
            -0.07877172529697418,
            0.09099678695201874,
            -0.04031069576740265,
            -0.07229718565940857,
            0.05773995816707611,
            -0.03367972373962402,
            0.07968920469284058,
            0.029790356755256653,
            0.0030838698148727417,
            0.026240959763526917,
            -0.09392724931240082,
            -0.06688195466995239,
            -0.05874915421009064,
            -0.07073047757148743,
            0.022165507078170776,
            0.024972856044769287,
            -0.0519368052482605,
            0.0814865380525589,
            -0.06954962015151978,
            0.025236353278160095,
            -0.03569324314594269,
            -0.10842843353748322,
            -0.08139348030090332
          ],
          [
            -0.5245198607444763,
            0.4040547013282776,
            -0.7474067807197571,
            -0.038979142904281616,
            -0.11685571074485779,
            -0.9081900119781494,
            0.3059874475002289,
            -0.4389450252056122,
            -0.07734359800815582,
            -0.5652777552604675,
            0.10373571515083313,
            -0.02557314932346344,
            -0.020490601658821106,
            0.04326482117176056,
            0.1328701376914978,
            -1.135495662689209,
            -0.11604572832584381,
            0.7273243069648743,
            -0.6633433699607849,
            -0.006705433130264282,
            0.10322055220603943,
            0.004278019070625305,
            0.04945240914821625,
            -1.2163184881210327,
            -0.6905081272125244,
            0.4065139889717102,
            -0.5587750673294067,
            -0.0018966048955917358,
            -0.11172518134117126,
            -0.9310029745101929,
            0.2997107207775116,
            -0.5625543594360352,
            0.7438644170761108,
            -0.41611340641975403,
            -0.7577790021896362,
            -0.11590532958507538,
            -0.4054546356201172,
            0.2322324514389038,
            0.20369309186935425,
            -0.06637290120124817,
            0.06638191640377045,
            0.37107574939727783,
            0.1513860523700714,
            -0.7003487348556519,
            0.31332746148109436,
            -0.03431876376271248,
            -0.5295059680938721,
            0.32662758231163025,
            -0.704209566116333,
            -0.005769908428192139,
            0.27459338307380676,
            -0.05619291961193085,
            0.6530799865722656,
            -1.173292636871338,
            -0.021873220801353455,
            0.3055843412876129,
            -1.234486699104309,
            -0.3507832884788513,
            0.28367504477500916,
            0.7364596128463745,
            -0.7784504294395447,
            -0.015645118430256844,
            0.07993253320455551,
            0.0021608774550259113
          ],
          [
            -0.12624779343605042,
            -0.3944351375102997,
            -0.2309049367904663,
            -0.010702744126319885,
            0.04244454205036163,
            -0.3093011975288391,
            -0.23359107971191406,
            -0.2151445746421814,
            0.057132378220558167,
            -0.1503550261259079,
            -0.022479921579360962,
            -0.09942829608917236,
            -0.10390900075435638,
            -0.023979827761650085,
            -0.2745891213417053,
            -0.026912681758403778,
            0.015683814883232117,
            -0.1834181696176529,
            -0.28208497166633606,
            0.03567199409008026,
            -0.06643308699131012,
            0.12294279038906097,
            -0.22545406222343445,
            -0.05818965658545494,
            -0.16177941858768463,
            -0.22955724596977234,
            -0.23797030746936798,
            -0.036900416016578674,
            0.015717819333076477,
            -0.2761220633983612,
            -0.3415113091468811,
            -0.09834388643503189,
            -0.25568887591362,
            -0.3371015787124634,
            -0.24059967696666718,
            -0.04149124026298523,
            -0.3967398703098297,
            -0.12370361387729645,
            -0.35576215386390686,
            0.028928831219673157,
            -0.19619831442832947,
            -0.08391618728637695,
            -0.1597028225660324,
            -0.21314023435115814,
            -0.21875110268592834,
            -0.2393680065870285,
            -0.1894097924232483,
            -0.09663238376379013,
            -0.29634177684783936,
            -0.041601359844207764,
            -0.38019126653671265,
            -0.09633806347846985,
            -0.28442075848579407,
            0.13241924345493317,
            -0.06227049231529236,
            -0.39355745911598206,
            0.0028328050393611193,
            -0.173088937997818,
            -0.2140236794948578,
            -0.2999212443828583,
            -0.15014338493347168,
            -0.17763161659240723,
            -0.34197989106178284,
            -0.2347065806388855
          ],
          [
            0.033939555287361145,
            0.0783589631319046,
            -0.07244999706745148,
            -0.040985092520713806,
            -0.052531734108924866,
            0.1212904155254364,
            -0.01614069938659668,
            -0.11919331550598145,
            0.06267775595188141,
            0.024101033806800842,
            0.01710483431816101,
            -0.08335636556148529,
            -0.11709658801555634,
            0.11326532065868378,
            -0.09414292871952057,
            -0.02375289797782898,
            -0.022910118103027344,
            0.07138748466968536,
            -0.10538014769554138,
            -0.07154449820518494,
            -0.06698611378669739,
            -0.06302756071090698,
            0.07646933197975159,
            0.07651560008525848,
            0.05670398473739624,
            0.10203564167022705,
            -0.08313383162021637,
            -0.0004963725805282593,
            -0.10115665197372437,
            -0.00024472177028656006,
            -0.10683566331863403,
            -0.12039569020271301,
            0.07873420417308807,
            -0.05531612038612366,
            -0.009959548711776733,
            -0.03684478998184204,
            -0.0991438776254654,
            -0.012470468878746033,
            0.01846526563167572,
            0.09987831115722656,
            -0.05317375063896179,
            0.11909829080104828,
            -0.05787688493728638,
            0.08001208305358887,
            0.10918331146240234,
            0.01292484998703003,
            -0.042930468916893005,
            0.09246513247489929,
            -0.03646194934844971,
            -0.053513020277023315,
            -0.04357647895812988,
            -0.10194970667362213,
            -0.012490585446357727,
            -0.10169212520122528,
            0.08186180889606476,
            -0.12038969993591309,
            -0.09286533296108246,
            0.024780437350273132,
            0.07732930779457092,
            0.11955499649047852,
            -0.10130631923675537,
            0.10268455743789673,
            0.08758647739887238,
            -0.08200222253799438
          ],
          [
            -0.2548459470272064,
            -0.2058248519897461,
            -0.2271963208913803,
            -0.1106596440076828,
            -0.07177188992500305,
            -0.11290409415960312,
            -0.28316038846969604,
            -0.2985829710960388,
            -0.002689853310585022,
            -0.3124137222766876,
            0.061738431453704834,
            0.06349919736385345,
            -0.10965260863304138,
            -0.11586496233940125,
            -0.2769823670387268,
            -0.22456246614456177,
            -0.09520651400089264,
            -0.2633368670940399,
            -0.25608277320861816,
            -0.09551315009593964,
            0.1170533150434494,
            0.09053196012973785,
            -0.15637344121932983,
            -0.3103061020374298,
            -0.39629942178726196,
            -0.15531381964683533,
            -0.19006408751010895,
            0.061149269342422485,
            -0.08109426498413086,
            0.06447252631187439,
            -0.3180435001850128,
            -0.3158886432647705,
            -0.30384188890457153,
            -0.026782920584082603,
            -0.3950216472148895,
            -0.07959561049938202,
            -0.19917845726013184,
            -0.01568315364420414,
            -0.3156518042087555,
            0.0784277617931366,
            -0.14518488943576813,
            -0.24702075123786926,
            -0.3512025773525238,
            -0.1770322620868683,
            -0.24431277811527252,
            -0.20187610387802124,
            -0.30609846115112305,
            -0.027334537357091904,
            -0.23220199346542358,
            -0.08742719888687134,
            -0.23428334295749664,
            0.030087962746620178,
            0.013457606546580791,
            -0.15913629531860352,
            0.07729479670524597,
            -0.2933056652545929,
            -0.21150405704975128,
            -0.15776345133781433,
            -0.044497448951005936,
            0.10238967835903168,
            -0.19243966042995453,
            -0.33855050802230835,
            -0.21322426199913025,
            -0.22871720790863037
          ],
          [
            0.27223366498947144,
            -0.21079595386981964,
            0.11688771098852158,
            0.07089878618717194,
            0.059299737215042114,
            -0.22698529064655304,
            -0.17644280195236206,
            -0.08006678521633148,
            -0.07839785516262054,
            -0.46409958600997925,
            0.10571315884590149,
            -0.006302759051322937,
            -0.01678694784641266,
            -0.04876340925693512,
            -0.10453883558511734,
            0.08639080822467804,
            2.7745962142944336e-05,
            -0.19907136261463165,
            0.19443842768669128,
            -0.12174391746520996,
            0.04371514916419983,
            0.12489685416221619,
            -0.2389972060918808,
            0.022447839379310608,
            0.259094774723053,
            -0.19735555350780487,
            0.15297341346740723,
            -0.09391114115715027,
            -0.09337025880813599,
            -0.19145332276821136,
            -0.22096121311187744,
            -0.08705419301986694,
            -0.18379661440849304,
            -0.30887237191200256,
            -0.2852802276611328,
            0.014450311660766602,
            -0.05707629770040512,
            -0.38608747720718384,
            -0.11673832684755325,
            0.04553377628326416,
            -0.1308937519788742,
            -0.13300219178199768,
            -0.08234304189682007,
            -0.03536350280046463,
            -0.14511393010616302,
            -0.0990711972117424,
            -0.0869155004620552,
            -0.44035059213638306,
            -0.12745483219623566,
            0.03665979206562042,
            0.13258087635040283,
            0.0006292015314102173,
            -0.17803403735160828,
            -0.38572126626968384,
            -0.09108491241931915,
            -0.1646544635295868,
            -0.2791594862937927,
            -0.1354834884405136,
            -0.38920196890830994,
            -0.37900155782699585,
            -0.2521776556968689,
            0.06304687261581421,
            -0.22214852273464203,
            -0.03799450024962425
          ],
          [
            -0.05596111714839935,
            0.06343872845172882,
            -0.03933998942375183,
            -0.016872242093086243,
            0.09299157559871674,
            0.045946285128593445,
            0.07652336359024048,
            0.1122199296951294,
            -0.04114179313182831,
            0.018122360110282898,
            -0.0937843769788742,
            0.12424765527248383,
            -0.08378903567790985,
            0.11881648004055023,
            0.11444695293903351,
            0.027193039655685425,
            -0.10807390511035919,
            -0.004028692841529846,
            -0.051516205072402954,
            0.03831930458545685,
            0.07068517804145813,
            0.069613978266716,
            0.0401439368724823,
            -0.09578202664852142,
            -0.10514019429683685,
            0.036907315254211426,
            -0.02742213010787964,
            0.058421358466148376,
            0.12148967385292053,
            0.037746697664260864,
            -0.07527215778827667,
            -0.036095693707466125,
            0.07701994478702545,
            0.011870771646499634,
            0.08523713052272797,
            -0.11981391906738281,
            -0.015402674674987793,
            -0.06096057593822479,
            0.09498822689056396,
            0.05467623472213745,
            -0.01675914227962494,
            -0.11597868800163269,
            -0.0147370845079422,
            0.10133546590805054,
            -0.0033478736877441406,
            -0.005177110433578491,
            -0.11559556424617767,
            0.0989639014005661,
            0.103425994515419,
            -0.10043661296367645,
            -0.08867208659648895,
            0.006056636571884155,
            -0.07152581214904785,
            -0.10228048264980316,
            0.039227887988090515,
            -0.03239889442920685,
            0.043327972292900085,
            0.049670010805130005,
            0.11131030321121216,
            0.0742674171924591,
            -0.11750628054141998,
            -0.10073649883270264,
            0.10018530488014221,
            -0.10620787739753723
          ],
          [
            0.07640200853347778,
            -0.07618246972560883,
            0.10030172765254974,
            0.07069277763366699,
            -0.08628162741661072,
            -0.10334539413452148,
            -0.05480578541755676,
            -0.057146161794662476,
            -0.07094220817089081,
            0.08808615803718567,
            0.030699104070663452,
            -0.015688002109527588,
            -0.00848861038684845,
            0.052015915513038635,
            0.012802541255950928,
            -0.015477344393730164,
            0.11099360883235931,
            0.08625775575637817,
            0.00876493752002716,
            0.08626708388328552,
            -0.026942119002342224,
            -0.09486614167690277,
            0.07179321348667145,
            0.0693402886390686,
            0.02026998996734619,
            -0.1066473126411438,
            0.09023049473762512,
            0.008890688419342041,
            -0.06582894921302795,
            -0.11027996242046356,
            -0.06491000950336456,
            0.11623118817806244,
            0.061998412013053894,
            -0.055142804980278015,
            0.10344484448432922,
            0.10707220435142517,
            0.06212875247001648,
            -0.011138707399368286,
            0.11714130640029907,
            -0.028279975056648254,
            -0.052151888608932495,
            0.05972832441329956,
            -0.0521501749753952,
            0.09123696386814117,
            -0.06649044156074524,
            0.04602561891078949,
            -0.09195606410503387,
            -0.08328688144683838,
            0.006336376070976257,
            0.09853401780128479,
            -0.09580247104167938,
            -0.033244580030441284,
            0.05814480781555176,
            -0.022372588515281677,
            -0.11212415993213654,
            -0.0014376342296600342,
            -0.0439005047082901,
            0.029754430055618286,
            0.05143466591835022,
            -0.03755468130111694,
            -0.0640382319688797,
            0.07390600442886353,
            -0.10768735408782959,
            0.06100665032863617
          ],
          [
            -0.1929742395877838,
            -0.12066513299942017,
            -0.25032463669776917,
            0.05026629567146301,
            -0.07460345327854156,
            -0.11312006413936615,
            -0.23220622539520264,
            -0.2306412309408188,
            0.0013708621263504028,
            -0.2650100290775299,
            -0.11615753173828125,
            -0.029484927654266357,
            0.07441116869449615,
            -0.028595581650733948,
            -0.19000253081321716,
            -0.23315316438674927,
            -0.09049277007579803,
            -0.18048125505447388,
            -0.19580648839473724,
            0.044728994369506836,
            0.12142254412174225,
            -0.08594727516174316,
            -0.2108057737350464,
            -0.10916762053966522,
            -0.32758069038391113,
            -0.1841217279434204,
            -0.22650285065174103,
            0.0795007050037384,
            -0.013914763927459717,
            -0.15871110558509827,
            -0.09967499226331711,
            -0.3467100262641907,
            -0.30897384881973267,
            -0.02933148480951786,
            -0.1344480812549591,
            -0.01119658350944519,
            -0.13544045388698578,
            -0.054641902446746826,
            -0.17765246331691742,
            -0.03494030237197876,
            -0.11995748430490494,
            -0.2038414478302002,
            -0.30002883076667786,
            -0.31458696722984314,
            -0.23904037475585938,
            -0.03985397517681122,
            -0.22843095660209656,
            -0.2694079279899597,
            -0.25675448775291443,
            0.11977332830429077,
            -0.2517465353012085,
            -0.07916434109210968,
            -0.07932603359222412,
            -0.25910311937332153,
            -0.11660973727703094,
            -0.09970194846391678,
            -0.18671715259552002,
            -0.11060529947280884,
            -0.19470149278640747,
            -0.021942824125289917,
            -0.20891699194908142,
            -0.14045590162277222,
            -0.23639173805713654,
            -0.2335994690656662
          ],
          [
            -0.20877744257450104,
            -0.09171484410762787,
            -0.34011009335517883,
            -0.012449830770492554,
            0.07379366457462311,
            -0.2771776020526886,
            -0.22437840700149536,
            -0.06550516933202744,
            -0.09544289112091064,
            -0.13888439536094666,
            -0.12085336446762085,
            -0.11690142750740051,
            0.0027491748332977295,
            -0.11295981705188751,
            -0.2959054410457611,
            0.16161082684993744,
            -0.023820191621780396,
            -0.19097933173179626,
            -0.14690348505973816,
            -0.1221575140953064,
            0.02552841603755951,
            -0.08179783821105957,
            -0.3006523549556732,
            0.09778191149234772,
            -0.1822095662355423,
            -0.1803104132413864,
            -0.37309059500694275,
            0.02695178985595703,
            -0.04975849390029907,
            -0.26388922333717346,
            -0.1808759868144989,
            -0.0927005410194397,
            -0.18119677901268005,
            -0.2807674705982208,
            -0.25669291615486145,
            0.00923474133014679,
            -0.33075299859046936,
            -0.15883536636829376,
            -0.030295567587018013,
            0.09445323050022125,
            -0.14687857031822205,
            0.21656185388565063,
            -0.2922041714191437,
            -0.1990537941455841,
            -0.026697104796767235,
            -0.2513735592365265,
            -0.2793984115123749,
            -0.07661954313516617,
            -0.2986817955970764,
            -0.08943837881088257,
            -0.16079331934452057,
            0.09535440802574158,
            -0.13723960518836975,
            -0.06216835603117943,
            0.07192167639732361,
            -0.19740702211856842,
            -0.054276540875434875,
            -0.28506916761398315,
            -0.15828262269496918,
            -0.21239399909973145,
            -0.2013191282749176,
            -0.2582462430000305,
            -0.17316989600658417,
            -0.406730979681015
          ],
          [
            -0.07199186086654663,
            0.012113913893699646,
            0.11515045166015625,
            -0.045531004667282104,
            -0.10183797776699066,
            -0.10885992646217346,
            0.04876543581485748,
            0.05192950367927551,
            -0.06683328747749329,
            -0.04849746823310852,
            0.09680655598640442,
            -0.10581542551517487,
            0.07340824604034424,
            0.004197314381599426,
            -0.05875450372695923,
            0.12077583372592926,
            -0.08215102553367615,
            0.11271058022975922,
            0.10360363125801086,
            0.04295855760574341,
            0.08142887055873871,
            0.030329570174217224,
            0.10467380285263062,
            0.02788299322128296,
            -0.12483413517475128,
            -0.05274210870265961,
            0.018244966864585876,
            0.0878569632768631,
            -0.03621147572994232,
            0.045378684997558594,
            0.04772569239139557,
            0.010799765586853027,
            -0.10300292074680328,
            0.11976328492164612,
            -0.060275495052337646,
            0.01972261071205139,
            -0.04862906038761139,
            0.031903594732284546,
            0.08449427783489227,
            0.02635003626346588,
            -0.05429714918136597,
            0.02769768238067627,
            -0.10233558714389801,
            0.10508224368095398,
            0.06704406440258026,
            0.08957476913928986,
            0.031608983874320984,
            -0.12447686493396759,
            -0.08884885907173157,
            -0.11355367302894592,
            0.07300740480422974,
            0.1211332231760025,
            0.08134634792804718,
            -0.05038933455944061,
            -0.07605089247226715,
            -0.07237587869167328,
            0.11755344271659851,
            -0.12017014622688293,
            -0.12223657965660095,
            0.05191916227340698,
            0.011832132935523987,
            -0.0643933117389679,
            -0.06985501945018768,
            -0.12018074095249176
          ],
          [
            0.04244765639305115,
            -0.06108485162258148,
            -0.034908413887023926,
            0.06555835902690887,
            -0.10097372531890869,
            0.1229146420955658,
            -0.040769174695014954,
            0.07976344227790833,
            -0.020495623350143433,
            0.08856800198554993,
            -0.06936867535114288,
            -0.027428075671195984,
            -0.061942800879478455,
            0.08221513032913208,
            -0.12091897428035736,
            0.08278661966323853,
            0.00011576712131500244,
            -0.07957129180431366,
            -0.036089733242988586,
            -0.014822408556938171,
            -0.03764727711677551,
            -0.05505038797855377,
            -0.03366765379905701,
            0.013038679957389832,
            0.0606217086315155,
            0.020690158009529114,
            0.09056766331195831,
            -0.020549893379211426,
            0.10558663308620453,
            0.04191681742668152,
            -0.0888214111328125,
            0.08396115899085999,
            0.02654045820236206,
            0.08014094829559326,
            -0.11898685991764069,
            -0.008095800876617432,
            -0.11609284579753876,
            -0.028837621212005615,
            -0.04516535997390747,
            -0.07718448340892792,
            -0.07849740982055664,
            0.09648305177688599,
            0.05661855638027191,
            0.04244986176490784,
            0.022529125213623047,
            0.03954586386680603,
            0.011967822909355164,
            -0.12084610760211945,
            -0.014142021536827087,
            0.07950353622436523,
            -0.01604117453098297,
            0.0218563973903656,
            0.07683253288269043,
            0.07340054214000702,
            -0.021867185831069946,
            0.10175405442714691,
            -0.04649403691291809,
            -0.003480851650238037,
            0.10075704753398895,
            -0.06984555721282959,
            0.12382933497428894,
            -0.060168832540512085,
            -0.06373146176338196,
            0.09623800218105316
          ],
          [
            0.2695564925670624,
            -0.26822641491889954,
            -0.12107367813587189,
            0.009014517068862915,
            -0.09590013325214386,
            -0.2166682928800583,
            -0.1693323403596878,
            0.06453108042478561,
            -0.008214637637138367,
            -0.14891105890274048,
            0.09326106309890747,
            0.08901515603065491,
            -0.05213187634944916,
            0.05931617319583893,
            -0.1536293923854828,
            0.17306533455848694,
            -0.09526561200618744,
            -0.14467746019363403,
            -0.06538205593824387,
            -0.10524247586727142,
            -0.008677616715431213,
            0.07297489047050476,
            -0.18000081181526184,
            0.2698126435279846,
            0.16276630759239197,
            -0.24933511018753052,
            -0.28255605697631836,
            -0.07514861226081848,
            -0.02368856966495514,
            -0.10243570804595947,
            -0.1672196090221405,
            0.19066928327083588,
            -0.079475037753582,
            -0.1473892778158188,
            -0.2327987551689148,
            -0.04191713035106659,
            -0.10907532274723053,
            -0.23030468821525574,
            0.22058650851249695,
            0.05341129004955292,
            -0.17492076754570007,
            0.09239929169416428,
            -0.2527503967285156,
            -0.29533663392066956,
            0.22080391645431519,
            -0.2985875606536865,
            -0.25067219138145447,
            -0.06210761517286301,
            -0.1836770921945572,
            0.0574849396944046,
            0.11799583584070206,
            -0.029505595564842224,
            -0.24228380620479584,
            -0.13320046663284302,
            -0.07983221113681793,
            -0.23692098259925842,
            -0.14958837628364563,
            -0.17444366216659546,
            -0.23990221321582794,
            -0.1698685884475708,
            -0.2023032009601593,
            -0.30049756169319153,
            -0.06325803697109222,
            -0.2822254002094269
          ],
          [
            -0.01303995493799448,
            -0.07684575021266937,
            -0.29313570261001587,
            -0.03459759056568146,
            0.11524687707424164,
            -0.23481664061546326,
            -0.11297222971916199,
            0.1692153364419937,
            -0.06682194769382477,
            -0.1937294453382492,
            -0.0681302547454834,
            0.0452384352684021,
            0.03446963429450989,
            0.09645615518093109,
            -0.13588756322860718,
            0.0924561619758606,
            -0.06913714110851288,
            -0.034554921090602875,
            -0.3176894783973694,
            -0.12020589411258698,
            -0.11232340335845947,
            0.06206035614013672,
            -0.055898163467645645,
            -0.0033247077371925116,
            -0.16823244094848633,
            -0.06244269758462906,
            -0.1493256688117981,
            0.12472100555896759,
            -0.051960721611976624,
            -0.4369342625141144,
            -0.010412151925265789,
            0.27707451581954956,
            0.06232785806059837,
            -0.16421259939670563,
            -0.14873842895030975,
            -0.05533680319786072,
            -0.239741712808609,
            -0.33547261357307434,
            0.11795197427272797,
            -0.07799111306667328,
            -0.06830050051212311,
            0.13255052268505096,
            -0.3806823194026947,
            -0.049240466207265854,
            0.14043612778186798,
            0.09711811691522598,
            -0.036015283316373825,
            -0.2349729686975479,
            -0.018924720585346222,
            0.054908379912376404,
            0.012107731774449348,
            -0.05201788246631622,
            -0.20735394954681396,
            -0.34873107075691223,
            -0.04609602689743042,
            -0.03444534167647362,
            -0.21258197724819183,
            -0.06179925799369812,
            -0.08598849177360535,
            -0.4394807517528534,
            -0.12502609193325043,
            0.0259977038949728,
            0.04583480954170227,
            -0.27099552750587463
          ],
          [
            -0.010875080712139606,
            -0.2471061646938324,
            -0.09516565501689911,
            0.02951982617378235,
            -0.05274544656276703,
            -0.25762417912483215,
            -0.10552702099084854,
            -0.2218957245349884,
            0.12118224799633026,
            -0.1755555272102356,
            0.1048496663570404,
            0.027158677577972412,
            -0.03950883448123932,
            -0.04187913239002228,
            -0.23529362678527832,
            -0.05295204371213913,
            0.0464363694190979,
            -0.1783684343099594,
            -0.20910054445266724,
            0.1111765056848526,
            0.04239684343338013,
            0.12387469410896301,
            -0.11998790502548218,
            0.006529633421450853,
            -0.18749022483825684,
            -0.3359965980052948,
            -0.06257209926843643,
            -0.07587988674640656,
            0.008790016174316406,
            -0.23161056637763977,
            -0.2650095522403717,
            -0.06572684645652771,
            -0.2877247929573059,
            -0.24837549030780792,
            -0.16575683653354645,
            -0.10430862009525299,
            -0.3111587464809418,
            -0.3468327224254608,
            -0.006667489651590586,
            0.12003757059574127,
            -0.11820191890001297,
            0.06209329515695572,
            -0.2939891815185547,
            -0.2906370759010315,
            0.15490122139453888,
            -0.13653144240379333,
            -0.36997973918914795,
            -0.31368356943130493,
            -0.3737509250640869,
            0.046559348702430725,
            -0.09512317180633545,
            -0.055958762764930725,
            -0.385348379611969,
            -0.3372935950756073,
            -0.10822130739688873,
            -0.17507652938365936,
            -0.40990209579467773,
            -0.251647025346756,
            -0.14019988477230072,
            -0.39796510338783264,
            -0.3825744092464447,
            -0.2745835781097412,
            -0.3269887864589691,
            -0.07775591313838959
          ],
          [
            -0.04013991355895996,
            -0.09660553932189941,
            0.07047660648822784,
            0.10886932909488678,
            0.0620637983083725,
            0.011690080165863037,
            0.023312866687774658,
            0.04831117391586304,
            0.11053279042243958,
            0.07168611884117126,
            -0.09740632772445679,
            -0.09692791104316711,
            -0.07874725759029388,
            -0.05447615683078766,
            0.11087875068187714,
            -0.12458276748657227,
            -0.018196702003479004,
            0.09475208818912506,
            0.04760441184043884,
            -0.06364616751670837,
            -0.0014798641204833984,
            -0.10172401368618011,
            -0.07952165603637695,
            -0.10428823530673981,
            -0.09132976830005646,
            0.12105242908000946,
            -0.01938733458518982,
            -0.06874628365039825,
            -0.061114996671676636,
            -0.10026675462722778,
            -0.06752464175224304,
            0.012534037232398987,
            -0.0765228271484375,
            0.019515886902809143,
            0.045555293560028076,
            0.08888311684131622,
            -0.0707966536283493,
            -0.025562047958374023,
            0.12353774905204773,
            -0.013466432690620422,
            -0.11151224374771118,
            -0.04100868105888367,
            0.04018042981624603,
            -0.022379249334335327,
            0.04411688446998596,
            -0.09854179620742798,
            0.06117849051952362,
            -0.05496677756309509,
            -0.046890512108802795,
            -0.008041545748710632,
            0.12148922681808472,
            0.09600035846233368,
            0.1074918657541275,
            -0.01803874969482422,
            0.08805215358734131,
            -0.0015940666198730469,
            0.08515225350856781,
            -0.04276013374328613,
            -0.06257703900337219,
            -0.08954755961894989,
            -0.006078809499740601,
            -0.05433596670627594,
            0.0989057719707489,
            -0.06491811573505402
          ],
          [
            0.06598548591136932,
            -0.06444190442562103,
            0.06829428672790527,
            0.004436522722244263,
            -0.07460799813270569,
            0.006259217858314514,
            -0.11589539051055908,
            -0.011648163199424744,
            -0.07418087124824524,
            -0.11303994059562683,
            0.11267450451850891,
            0.0744626373052597,
            0.030075520277023315,
            0.07373537123203278,
            -0.10032333433628082,
            -0.06563210487365723,
            -0.05928319692611694,
            -0.07784585654735565,
            -0.025821030139923096,
            0.09275203943252563,
            -0.079072505235672,
            0.023988008499145508,
            0.054459646344184875,
            -0.06345099210739136,
            0.05134068429470062,
            -0.03451947867870331,
            0.05531980097293854,
            0.11294880509376526,
            0.033116817474365234,
            -0.08055426180362701,
            -0.07983788847923279,
            0.09792517125606537,
            -0.036627575755119324,
            0.11894910037517548,
            -0.09495104849338531,
            -0.06788809597492218,
            0.12254096567630768,
            0.005230501294136047,
            -0.06188502907752991,
            0.010033965110778809,
            -0.009385675191879272,
            -0.11244267225265503,
            0.03957986831665039,
            0.0669160783290863,
            0.0017565637826919556,
            -0.10297699272632599,
            -0.03736168146133423,
            0.04591110348701477,
            -0.04180741310119629,
            0.10099221765995026,
            -0.03901034593582153,
            -0.02876552939414978,
            0.0712737888097763,
            0.013583332300186157,
            0.07190775871276855,
            -0.08509290218353271,
            0.09175112843513489,
            -0.039615169167518616,
            0.0011745542287826538,
            0.06256340444087982,
            0.038306012749671936,
            -0.04648567736148834,
            0.07264204323291779,
            -0.011432752013206482
          ],
          [
            -0.14133141934871674,
            -0.21246843039989471,
            -0.16865259408950806,
            -0.04134145379066467,
            0.07272160053253174,
            0.3905922770500183,
            -0.1811450570821762,
            0.07625401765108109,
            0.04179826378822327,
            -0.09856381267309189,
            -0.07229860126972198,
            -0.008737966418266296,
            -0.10041813552379608,
            0.0481858104467392,
            -0.11141570657491684,
            -0.3115760385990143,
            -0.038140684366226196,
            -0.360344797372818,
            -0.1451975405216217,
            0.0037593841552734375,
            0.08784149587154388,
            -0.048450127243995667,
            -0.2861116826534271,
            -0.1241801306605339,
            -0.07534677535295486,
            -0.2620927691459656,
            -0.22456733882427216,
            -0.03210504353046417,
            -0.08043713867664337,
            0.17689819633960724,
            -0.11970721185207367,
            0.03827415406703949,
            -0.22381925582885742,
            -0.36815139651298523,
            -0.09308294951915741,
            0.07671341300010681,
            0.23112694919109344,
            -0.006326922215521336,
            -0.3916221261024475,
            0.054960012435913086,
            -0.09107029438018799,
            -0.20123665034770966,
            -0.16187861561775208,
            0.5267176628112793,
            -0.4268397390842438,
            -0.31864914298057556,
            0.16254238784313202,
            -0.00786818377673626,
            0.5213322043418884,
            -0.01562279462814331,
            -0.3298095762729645,
            -0.009471312165260315,
            -0.33887022733688354,
            0.09492626786231995,
            0.11074016988277435,
            -0.13281381130218506,
            0.17776896059513092,
            -0.3445160984992981,
            0.1839636266231537,
            -0.07869356125593185,
            -0.0002909056784119457,
            -0.34596729278564453,
            -0.0067060040310025215,
            -0.3045191168785095
          ],
          [
            0.033752478659152985,
            -0.20958063006401062,
            -0.049798332154750824,
            0.0318884402513504,
            0.04817435145378113,
            -0.2225646674633026,
            -0.16025330126285553,
            -0.02918728068470955,
            -0.003022313117980957,
            -0.26950377225875854,
            -0.04638467729091644,
            0.09974099695682526,
            -0.06294411420822144,
            0.1141664981842041,
            -0.17078034579753876,
            -0.35738158226013184,
            -0.1131652295589447,
            -0.31600749492645264,
            -0.06517576426267624,
            0.09919790923595428,
            -0.10713288187980652,
            -0.030990317463874817,
            -0.24420742690563202,
            -0.3023379147052765,
            -0.17953167855739594,
            -0.27026426792144775,
            -0.06933975219726562,
            -0.015078932046890259,
            0.06526230275630951,
            -0.24492734670639038,
            -0.1760457307100296,
            -0.06572798639535904,
            -0.23512890934944153,
            -0.32496050000190735,
            -0.3093484044075012,
            0.052483245730400085,
            0.011473027057945728,
            -0.30179330706596375,
            -0.4291267395019531,
            0.0847080796957016,
            -0.14952324330806732,
            -0.29727306962013245,
            -0.3689713478088379,
            -0.16288642585277557,
            -0.2166261374950409,
            -0.27224311232566833,
            -0.12153388559818268,
            -0.3256041705608368,
            -0.13041287660598755,
            -0.11541900038719177,
            -0.14771991968154907,
            -0.014879494905471802,
            -0.4318321943283081,
            -0.2656567692756653,
            0.06763170659542084,
            -0.3752606213092804,
            -0.3002576231956482,
            -0.3572649657726288,
            -0.25694766640663147,
            -0.30401143431663513,
            -0.26101812720298767,
            -0.2454495131969452,
            -0.17578324675559998,
            -0.3240271508693695
          ],
          [
            -0.027874574065208435,
            -0.08995772898197174,
            -0.09231887757778168,
            0.10426107048988342,
            0.06836068630218506,
            0.10308191180229187,
            0.0549706369638443,
            -0.06947369873523712,
            -0.02526356279850006,
            -0.10758194327354431,
            0.11058665812015533,
            -0.015822261571884155,
            -0.005682006478309631,
            0.04825177788734436,
            -0.01613926887512207,
            -0.08824975788593292,
            0.006069839000701904,
            0.0869758278131485,
            0.07972760498523712,
            -0.11532928049564362,
            0.11222851276397705,
            0.05177685618400574,
            -0.11918671429157257,
            -0.014318704605102539,
            -0.08075343072414398,
            0.014304280281066895,
            -0.11179222166538239,
            -0.02900315821170807,
            0.0947461724281311,
            -0.020318210124969482,
            0.02428528666496277,
            -0.06559157371520996,
            0.08733947575092316,
            0.09679745137691498,
            0.0014921724796295166,
            0.00576704740524292,
            0.11500519514083862,
            -0.12303419411182404,
            0.055464789271354675,
            -0.08640557527542114,
            -0.054562002420425415,
            -0.120742067694664,
            0.029900506138801575,
            0.10550667345523834,
            -0.02378159761428833,
            0.05226786434650421,
            -0.01799914240837097,
            -0.10713791847229004,
            -0.10863201320171356,
            -0.003203153610229492,
            0.08872465789318085,
            0.08950525522232056,
            -0.04909476637840271,
            0.02548857033252716,
            0.11008860170841217,
            -0.09903259575366974,
            -0.12410867214202881,
            -0.12464778125286102,
            0.07123857736587524,
            -0.10242149233818054,
            -0.10715912282466888,
            0.04143528640270233,
            0.07142160832881927,
            0.056752413511276245
          ],
          [
            -0.11180491745471954,
            0.11589886248111725,
            0.08704575896263123,
            -0.04254022240638733,
            -0.08628134429454803,
            -0.0723964124917984,
            -0.06994643807411194,
            -0.10794533789157867,
            0.06419850885868073,
            0.08991356194019318,
            0.04421885311603546,
            0.060651108622550964,
            -0.07198944687843323,
            0.0685301423072815,
            0.10415734350681305,
            0.06778264045715332,
            0.10066276788711548,
            -0.05439646542072296,
            0.0529816597700119,
            -0.04764258861541748,
            -0.031100288033485413,
            0.12067940831184387,
            -0.009254515171051025,
            0.005452379584312439,
            0.008765161037445068,
            0.01412355899810791,
            -0.05438384413719177,
            0.0917683094739914,
            0.10651393234729767,
            -0.06963120400905609,
            -0.11690574884414673,
            -0.02480122447013855,
            -0.05968235433101654,
            0.08236850798130035,
            -0.04223473370075226,
            0.08897730708122253,
            0.028485283255577087,
            -0.044527679681777954,
            -0.062484368681907654,
            0.0257299542427063,
            -0.10057388246059418,
            -0.016237884759902954,
            -0.12131913006305695,
            -0.1100405603647232,
            -0.0767894983291626,
            0.06679104268550873,
            -0.09600739181041718,
            0.11953845620155334,
            -0.1206977516412735,
            -0.1108923852443695,
            0.05562947690486908,
            0.0038685649633407593,
            0.0929088294506073,
            -0.02860032021999359,
            0.05280432105064392,
            0.10003334283828735,
            -0.0861460268497467,
            -0.08769847452640533,
            0.10891100764274597,
            0.10746675729751587,
            -0.005074426531791687,
            0.07198606431484222,
            -0.09055095911026001,
            0.09961754083633423
          ],
          [
            0.1436692625284195,
            -0.1153121143579483,
            0.14700983464717865,
            -0.09999816119670868,
            -0.04367443919181824,
            -0.2019749879837036,
            -0.1746256798505783,
            0.20925593376159668,
            -0.10781314969062805,
            -0.24666015803813934,
            -0.049799978733062744,
            0.027996733784675598,
            -0.0809318870306015,
            0.10533629357814789,
            -0.23499120771884918,
            0.2924889028072357,
            0.032161056995391846,
            -0.12401289492845535,
            0.14572285115718842,
            0.05389884114265442,
            -0.05889822542667389,
            0.007270932197570801,
            -0.100566565990448,
            0.16698914766311646,
            0.16754770278930664,
            -0.16867873072624207,
            0.10293635725975037,
            -0.09035646915435791,
            -0.01930597424507141,
            -0.16485899686813354,
            -0.07756493985652924,
            0.17570412158966064,
            0.16088131070137024,
            -0.15001249313354492,
            -0.1500801295042038,
            -0.012178540229797363,
            -0.1256176382303238,
            -0.05570203438401222,
            0.13354100286960602,
            -0.059339895844459534,
            -0.18605417013168335,
            0.30164003372192383,
            -0.13289009034633636,
            0.07248927652835846,
            0.2734922170639038,
            -0.0781506896018982,
            -0.07258153706789017,
            -0.13406507670879364,
            0.06419705599546432,
            0.017850831151008606,
            0.17508836090564728,
            -0.07034191489219666,
            -0.26558712124824524,
            -0.1912502646446228,
            0.10791265964508057,
            0.21532003581523895,
            -0.16932818293571472,
            -0.13275966048240662,
            -0.2923762798309326,
            -0.11380332708358765,
            -0.1518736332654953,
            0.10708241909742355,
            -0.28875109553337097,
            0.09669773280620575
          ],
          [
            0.037851616740226746,
            0.03763161599636078,
            0.02017056941986084,
            -0.024716690182685852,
            0.05479009449481964,
            -0.08000284433364868,
            0.06326420605182648,
            -0.06385540962219238,
            -0.06439414620399475,
            -0.09206312894821167,
            0.03583328425884247,
            -0.06651066243648529,
            0.07654900848865509,
            0.067087322473526,
            -0.003365546464920044,
            0.07185259461402893,
            0.07279574871063232,
            0.048090264201164246,
            -0.0963960736989975,
            -0.025518104434013367,
            -0.021616533398628235,
            0.0672944188117981,
            -0.048282891511917114,
            0.02703128755092621,
            0.04973606765270233,
            0.08238640427589417,
            0.1195007711648941,
            -0.02757611870765686,
            -0.09819260239601135,
            -0.10356001555919647,
            -0.02796134352684021,
            0.07591959834098816,
            -0.024016067385673523,
            -0.10314260423183441,
            -0.08461244404315948,
            -0.07049080729484558,
            -0.07068099081516266,
            0.004464492201805115,
            -0.012541800737380981,
            -0.06804099678993225,
            -0.022423580288887024,
            -0.06273122131824493,
            -0.005455285310745239,
            0.053440362215042114,
            -0.009479060769081116,
            -0.030659198760986328,
            0.027192339301109314,
            0.08075708150863647,
            0.10814446210861206,
            -0.0529693067073822,
            -0.10676711797714233,
            0.02799651026725769,
            0.049871668219566345,
            0.014827951788902283,
            0.12166421115398407,
            0.06313623487949371,
            0.009056612849235535,
            0.08362793922424316,
            0.08914639055728912,
            -0.06889104843139648,
            -0.09299260377883911,
            -0.004128247499465942,
            -0.04035170376300812,
            -0.08241750299930573
          ],
          [
            -0.09286265075206757,
            0.08011870086193085,
            -0.05110999941825867,
            -0.0692136287689209,
            0.08011503517627716,
            0.011217430233955383,
            0.02398669719696045,
            -0.03903408348560333,
            0.030660048127174377,
            0.0796075165271759,
            -0.08626478910446167,
            -0.023594707250595093,
            0.00908033549785614,
            0.10164059698581696,
            0.10047419369220734,
            0.08562876284122467,
            -0.04516686499118805,
            0.00019869208335876465,
            -0.00232735276222229,
            -0.08948828279972076,
            -0.09014135599136353,
            -0.02435167133808136,
            -0.01701350510120392,
            0.04291076958179474,
            -0.1123722642660141,
            -0.05990658700466156,
            0.09972402453422546,
            0.021294787526130676,
            -0.08859573304653168,
            0.059592366218566895,
            -0.048708319664001465,
            -0.07013741135597229,
            -0.05863255262374878,
            -0.06889107823371887,
            -0.06741942465305328,
            0.021519005298614502,
            0.06084024906158447,
            0.06544995307922363,
            0.12490415573120117,
            0.10172022879123688,
            -0.0661286860704422,
            0.10538418591022491,
            -0.029477998614311218,
            0.07149015367031097,
            -0.058712467551231384,
            0.10582172870635986,
            -0.00884680449962616,
            0.042980387806892395,
            0.10861562192440033,
            -0.02662670612335205,
            0.04970523715019226,
            0.03500819206237793,
            -0.04397524893283844,
            0.002551719546318054,
            0.10371851921081543,
            0.028413385152816772,
            0.09157605469226837,
            0.062182918190956116,
            0.058815181255340576,
            -0.0534278005361557,
            -0.027516722679138184,
            0.07753932476043701,
            0.02914254367351532,
            0.0642557293176651
          ],
          [
            0.09522373974323273,
            -0.12670932710170746,
            0.05026306211948395,
            -0.052319109439849854,
            0.04091788828372955,
            -0.0009403079748153687,
            -0.09742782264947891,
            -0.13194604218006134,
            -0.07795515656471252,
            0.0776660293340683,
            -0.015696004033088684,
            0.04908935725688934,
            -0.055993884801864624,
            -0.10971751809120178,
            -0.12941783666610718,
            0.06274642050266266,
            0.0978831797838211,
            -0.10418380051851273,
            0.05913862586021423,
            0.06592108309268951,
            0.033356428146362305,
            -0.05653896927833557,
            -0.1528945416212082,
            -0.09624914824962616,
            -0.07480819523334503,
            -0.06577534228563309,
            0.048477113246917725,
            0.04921826720237732,
            -0.01248370110988617,
            -0.12125974893569946,
            -0.21598933637142181,
            -0.22584527730941772,
            -0.22537004947662354,
            0.02439519762992859,
            -0.07990263402462006,
            -0.06845048069953918,
            -0.026791319251060486,
            -0.10798689723014832,
            -0.2007649540901184,
            -0.002333715558052063,
            -0.18857860565185547,
            -0.22829803824424744,
            -0.03445310890674591,
            0.0982452929019928,
            -0.11028337478637695,
            0.029056623578071594,
            -0.08662194013595581,
            -0.07905836403369904,
            0.057037949562072754,
            -0.0010080188512802124,
            -0.18660539388656616,
            -0.03978662192821503,
            -0.08747364580631256,
            -0.06903435289859772,
            0.07186968624591827,
            -0.08456581085920334,
            0.07282651960849762,
            -0.25876471400260925,
            -0.003200039267539978,
            -0.10597416758537292,
            -0.0752469152212143,
            -0.2693580090999603,
            -0.14231762290000916,
            -0.11795860528945923
          ],
          [
            0.01253209076821804,
            -0.11161285638809204,
            -0.11652234941720963,
            0.0316525399684906,
            0.043452680110931396,
            -0.1429011970758438,
            -0.11629706621170044,
            -0.011942613869905472,
            0.046557679772377014,
            -0.2890194058418274,
            0.09434844553470612,
            0.03571520745754242,
            0.05179029703140259,
            0.015832021832466125,
            -0.1758745312690735,
            -0.09467845410108566,
            0.02680547535419464,
            -0.15308701992034912,
            -0.07559206336736679,
            -0.06388400495052338,
            0.038306668400764465,
            -0.12153834104537964,
            -0.05654492229223251,
            -0.12519149482250214,
            -0.15172027051448822,
            -0.16062793135643005,
            -0.09504806250333786,
            -0.040648505091667175,
            0.11846160888671875,
            -0.25672921538352966,
            -0.203130304813385,
            -0.24734583497047424,
            -0.08956824243068695,
            -0.1430717259645462,
            -0.334331214427948,
            -0.09207053482532501,
            -0.015604609623551369,
            -0.3340487778186798,
            -0.15097950398921967,
            -0.06787626445293427,
            -0.11494661867618561,
            -0.1589694619178772,
            -0.20722809433937073,
            -0.2279631346464157,
            -0.17114897072315216,
            0.007124956231564283,
            -0.10767970234155655,
            -0.15947432816028595,
            -0.10340528190135956,
            0.02504989504814148,
            0.04519758000969887,
            0.024402976036071777,
            -0.16997937858104706,
            -0.18282555043697357,
            -0.05743512511253357,
            -0.18580539524555206,
            -0.1901276409626007,
            -0.003441394306719303,
            -0.06446027755737305,
            -0.16661234200000763,
            -0.12887975573539734,
            -0.03345350921154022,
            -0.198872372508049,
            -0.030671870335936546
          ],
          [
            -0.23024336993694305,
            -0.32164472341537476,
            -0.3231426477432251,
            0.07071156799793243,
            0.016310125589370728,
            -0.294018030166626,
            -0.27113157510757446,
            -0.11886314302682877,
            0.12389642000198364,
            -0.18795691430568695,
            -0.1177806407213211,
            -0.09731824696063995,
            -0.09615111351013184,
            -0.0046960413455963135,
            -0.22931140661239624,
            -0.21249207854270935,
            0.05592268705368042,
            -0.35916686058044434,
            -0.19250546395778656,
            -0.0029152780771255493,
            0.0390927791595459,
            0.08746297657489777,
            -0.25366759300231934,
            -0.2042960822582245,
            -0.3255137801170349,
            -0.15024885535240173,
            -0.30508649349212646,
            -0.005794614553451538,
            -0.10498782992362976,
            -0.36541420221328735,
            -0.26870736479759216,
            -0.09188821166753769,
            -0.28792932629585266,
            -0.20523957908153534,
            -0.1845252960920334,
            0.11727243661880493,
            -0.15659284591674805,
            -0.12494368851184845,
            -0.09549529105424881,
            0.06095798313617706,
            -0.17193469405174255,
            -0.021411089226603508,
            -0.3353443145751953,
            -0.03334560990333557,
            -0.19539369642734528,
            -0.021286876872181892,
            -0.16436725854873657,
            -0.2628869116306305,
            -0.23933754861354828,
            -0.06053665280342102,
            -0.361206978559494,
            -0.020741641521453857,
            -0.14519116282463074,
            -0.2783568203449249,
            0.00878085196018219,
            -0.30453431606292725,
            -0.26380449533462524,
            -0.24840880930423737,
            -0.08179210871458054,
            -0.13174456357955933,
            -0.22480754554271698,
            -0.1768878996372223,
            -0.3239719867706299,
            -0.2768416404724121
          ],
          [
            0.005404308438301086,
            0.12001298367977142,
            0.06398975849151611,
            -0.06535865366458893,
            0.061628296971321106,
            0.0009960383176803589,
            -0.09754464030265808,
            -0.07214991748332977,
            -0.09062635898590088,
            0.10269264876842499,
            0.10451588034629822,
            -0.09454312920570374,
            0.06080479919910431,
            0.11865676939487457,
            -0.013112500309944153,
            0.08624877035617828,
            0.0963577926158905,
            0.06547176837921143,
            -0.054511696100234985,
            0.105277881026268,
            0.032307714223861694,
            0.06008632481098175,
            -0.11209206283092499,
            0.04525505006313324,
            0.07540559768676758,
            -0.08649952709674835,
            -0.08784227073192596,
            -0.0482335239648819,
            0.060101449489593506,
            -0.049481719732284546,
            -0.0166129469871521,
            -0.12409600615501404,
            -0.03623080253601074,
            -0.04671284556388855,
            -0.12181751430034637,
            0.05115006864070892,
            0.010849818587303162,
            -0.11354222893714905,
            0.05772538483142853,
            0.07967184484004974,
            -0.07825243473052979,
            -0.04759281873703003,
            -0.055439651012420654,
            -0.04009556770324707,
            0.02693679928779602,
            0.08685018122196198,
            0.09906503558158875,
            -0.09426888823509216,
            0.11583800613880157,
            0.0028094500303268433,
            -0.11647665500640869,
            0.06957347691059113,
            0.0955292135477066,
            -0.019366741180419922,
            -0.11622518301010132,
            0.08842688798904419,
            -0.07043935358524323,
            -0.09255744516849518,
            -0.03696560859680176,
            -0.0025275349617004395,
            0.019931524991989136,
            0.0449986457824707,
            0.04023118317127228,
            -0.016468852758407593
          ],
          [
            0.5614330768585205,
            -0.09523016214370728,
            0.5789443254470825,
            0.027373135089874268,
            0.07744775712490082,
            0.7218391299247742,
            0.024868426844477654,
            -0.8903076648712158,
            -0.022935986518859863,
            -1.0373455286026,
            -0.12076829373836517,
            0.09666216373443604,
            0.06756718456745148,
            0.11087283492088318,
            0.974692702293396,
            -0.9065513610839844,
            -0.06772799789905548,
            -0.4269537031650543,
            0.3981133699417114,
            0.03112874925136566,
            -0.09440132975578308,
            0.07470688223838806,
            0.07518140971660614,
            -0.8882441520690918,
            0.6652640700340271,
            0.030241716653108597,
            0.4843875467777252,
            -0.10167376697063446,
            -0.12006901204586029,
            0.6034737229347229,
            -0.05038627237081528,
            -0.6596729159355164,
            -0.7339646816253662,
            1.2300654649734497,
            -0.0470869205892086,
            -0.09921269118785858,
            -0.4244854152202606,
            0.6119138598442078,
            -0.3172285854816437,
            -0.11199860274791718,
            0.07895822077989578,
            -0.02433970384299755,
            -0.17364667356014252,
            -0.05710843205451965,
            -0.5446630120277405,
            0.9683813452720642,
            -0.4310707449913025,
            0.5982975363731384,
            -0.07166702300310135,
            0.04801568388938904,
            -1.2027713060379028,
            0.07017062604427338,
            0.888337254524231,
            1.020843505859375,
            -0.10535186529159546,
            -0.25900304317474365,
            0.9455254673957825,
            -0.3010520935058594,
            0.3928404450416565,
            0.8958749771118164,
            0.9500080943107605,
            -0.8482421636581421,
            0.31307342648506165,
            -0.8377373218536377
          ],
          [
            -0.032034799456596375,
            -0.03804612159729004,
            -0.09589064121246338,
            -0.005143687129020691,
            0.03719821572303772,
            0.11016173660755157,
            0.03694577515125275,
            0.03804473578929901,
            0.01796320080757141,
            -0.07090505957603455,
            -0.015236318111419678,
            -0.02097533643245697,
            0.04877468943595886,
            0.06806832551956177,
            0.10876736044883728,
            -0.0644746869802475,
            0.009706377983093262,
            0.015036731958389282,
            -0.06402555108070374,
            0.08356881141662598,
            0.09475255012512207,
            0.018706828355789185,
            -0.07785868644714355,
            0.09645956754684448,
            0.09561829268932343,
            -0.06100083887577057,
            -0.06809541583061218,
            0.11084786057472229,
            -0.10994774103164673,
            -0.007653281092643738,
            -0.010158717632293701,
            -0.033635541796684265,
            -0.09171353280544281,
            -0.05527539551258087,
            -0.07454362511634827,
            0.01669132709503174,
            0.08206464350223541,
            -0.07246924936771393,
            0.1117178350687027,
            0.05210182070732117,
            -0.029244929552078247,
            0.0852312445640564,
            -0.02791982889175415,
            -0.0437125563621521,
            -0.11397023499011993,
            -0.04165756702423096,
            -0.04246258735656738,
            0.05020277202129364,
            -0.11261981725692749,
            0.11445511877536774,
            -0.002866014838218689,
            0.025603875517845154,
            -0.03149089217185974,
            -0.03782449662685394,
            -0.08387717604637146,
            -0.0029788464307785034,
            0.08420923352241516,
            0.03313222527503967,
            0.04040414094924927,
            -0.09118051826953888,
            0.06103616952896118,
            -0.036316320300102234,
            -0.09115082025527954,
            -0.061570510268211365
          ],
          [
            -0.25382956862449646,
            -0.2785944640636444,
            0.04387856274843216,
            -0.05716541409492493,
            -0.0425487756729126,
            -0.10862527787685394,
            -0.24439691007137299,
            0.05204227939248085,
            0.09140673279762268,
            -0.2208596020936966,
            0.06268085539340973,
            0.08877250552177429,
            -0.0024361610412597656,
            -0.10186026990413666,
            -0.2747219204902649,
            0.07988291233778,
            -0.01270437240600586,
            -0.27999913692474365,
            -0.021726982668042183,
            -0.01892895996570587,
            0.05601479113101959,
            -0.11807632446289062,
            -0.20999807119369507,
            -0.029038257896900177,
            -0.11100365221500397,
            -0.1635061353445053,
            -0.11690965294837952,
            -0.023725539445877075,
            0.05491939187049866,
            -0.26027581095695496,
            -0.14237986505031586,
            -0.08572524040937424,
            -0.14256155490875244,
            -0.24286362528800964,
            -0.35735073685646057,
            -0.01334601640701294,
            -0.14009536802768707,
            -0.36067020893096924,
            -0.20616139471530914,
            -0.019347921013832092,
            -0.1373581886291504,
            -0.13553468883037567,
            -0.38254812359809875,
            -0.12500615417957306,
            -0.3851953148841858,
            -0.3326561152935028,
            -0.16073501110076904,
            -0.3511773943901062,
            -0.1810348629951477,
            -0.0659756064414978,
            -0.28570616245269775,
            -0.07467639446258545,
            -0.3644084632396698,
            -0.3811967372894287,
            -0.036138489842414856,
            -0.2147456258535385,
            -0.21324610710144043,
            -0.22334422171115875,
            -0.2619670629501343,
            -0.3337431252002716,
            -0.33914071321487427,
            -0.1657978743314743,
            -0.29557615518569946,
            -0.27310052514076233
          ],
          [
            -0.19771982729434967,
            -0.11855517327785492,
            -0.11457715183496475,
            -0.11905872821807861,
            -0.09022745490074158,
            -0.33723169565200806,
            -0.1500825136899948,
            -0.04877534881234169,
            0.002882152795791626,
            -0.034355152398347855,
            -0.05296432971954346,
            -0.07160824537277222,
            0.11576466262340546,
            -0.09840124845504761,
            -0.22144006192684174,
            0.1002684012055397,
            -0.10725268721580505,
            -0.16637137532234192,
            -0.05268770828843117,
            0.03201945126056671,
            0.1162029355764389,
            -0.057699352502822876,
            -0.35149699449539185,
            -0.028907230123877525,
            -0.32171571254730225,
            -0.19194486737251282,
            -0.08435805886983871,
            -0.05717568099498749,
            -0.04302656650543213,
            -0.17101551592350006,
            -0.2332414835691452,
            -0.02117805927991867,
            -0.29951855540275574,
            -0.1631752997636795,
            -0.04581921547651291,
            -0.04432566463947296,
            -0.1394449770450592,
            -0.007142511662095785,
            0.05819307640194893,
            -0.10075846314430237,
            -0.2018529772758484,
            0.007940435782074928,
            -0.36689502000808716,
            -0.11845778673887253,
            0.00916785653680563,
            0.3008190095424652,
            -0.15212462842464447,
            0.09699510037899017,
            -0.24950945377349854,
            0.04259689152240753,
            -0.18630072474479675,
            -0.08480627834796906,
            -0.12023084610700607,
            0.11621537804603577,
            -0.038924455642700195,
            -0.3319090008735657,
            0.11280633509159088,
            -0.12473507970571518,
            -0.20246455073356628,
            -0.272233247756958,
            0.04030720889568329,
            -0.23698867857456207,
            -0.0074906605295836926,
            -0.2949132025241852
          ],
          [
            -0.08307205140590668,
            -0.012138128280639648,
            -0.019007757306098938,
            0.00876714289188385,
            0.1211363673210144,
            0.09513619542121887,
            0.12154944241046906,
            -0.11893036961555481,
            0.11140353977680206,
            -0.09705665707588196,
            -0.03692188858985901,
            0.07308521866798401,
            -0.030184581875801086,
            -0.05545052886009216,
            0.006211325526237488,
            0.1189526617527008,
            -0.01017521321773529,
            -0.1214953362941742,
            -0.029646888375282288,
            -0.10408982634544373,
            0.003905653953552246,
            0.09261971712112427,
            0.10274673998355865,
            0.022208958864212036,
            -0.08264711499214172,
            -0.07080954313278198,
            0.06759525835514069,
            0.05172714591026306,
            -0.06866525113582611,
            0.03201723098754883,
            -0.044399455189704895,
            -0.09107683598995209,
            0.12072998285293579,
            0.05840013921260834,
            -0.04565548896789551,
            0.07129514217376709,
            -0.08803711831569672,
            0.066944420337677,
            0.045448124408721924,
            -0.03626982867717743,
            -0.06368319690227509,
            0.00916464626789093,
            0.0794905573129654,
            0.008928149938583374,
            -0.09270074963569641,
            -0.07408484816551208,
            -0.013413235545158386,
            0.051343753933906555,
            0.07385772466659546,
            0.09464342892169952,
            0.09786033630371094,
            -0.011051014065742493,
            -0.07047273218631744,
            -0.09444163739681244,
            -0.0024862140417099,
            0.10748060047626495,
            0.05002796649932861,
            0.045508041977882385,
            0.0259874165058136,
            -0.10808415710926056,
            -0.0316072553396225,
            -0.062430232763290405,
            -0.10294973850250244,
            0.08937215805053711
          ],
          [
            -0.15642490983009338,
            -0.23169144988059998,
            -0.35562652349472046,
            0.043570518493652344,
            -0.09047767519950867,
            -0.2897048890590668,
            -0.20519976317882538,
            -0.034170348197221756,
            0.04823474586009979,
            -0.11364758014678955,
            0.09382781386375427,
            -0.03647804260253906,
            0.07744312286376953,
            -0.10889343917369843,
            -0.1683957725763321,
            -0.21469220519065857,
            -0.04102921485900879,
            -0.12255140393972397,
            -0.29046356678009033,
            -0.09114962816238403,
            0.04361437261104584,
            0.09162506461143494,
            -0.19323261082172394,
            -0.02266814559698105,
            -0.2840867042541504,
            -0.19013339281082153,
            -0.35775184631347656,
            -0.0035284608602523804,
            0.006216332316398621,
            -0.2664524018764496,
            -0.21643386781215668,
            -0.12369711697101593,
            -0.27430927753448486,
            -0.40361109375953674,
            -0.20181947946548462,
            0.08514373004436493,
            -0.08206622302532196,
            -0.15182209014892578,
            -0.3470586836338043,
            0.09084281325340271,
            -0.13380762934684753,
            -0.03547084704041481,
            -0.21128132939338684,
            0.08143970370292664,
            -0.15032169222831726,
            -0.23235748708248138,
            -0.29636141657829285,
            -0.24493782222270966,
            -0.11255422234535217,
            0.10872992873191833,
            -0.1431552767753601,
            -0.04518169164657593,
            -0.15091659128665924,
            -0.26032498478889465,
            -0.09690123796463013,
            -0.17284108698368073,
            -0.13493753969669342,
            -0.16220320761203766,
            -0.1178930327296257,
            -0.1965745985507965,
            -0.1788199245929718,
            -0.1557898372411728,
            -0.292584627866745,
            -0.35277464985847473
          ],
          [
            0.01761510968208313,
            0.09989368915557861,
            -0.014247626066207886,
            0.059358149766922,
            -0.1196448802947998,
            -0.05511154234409332,
            0.03963695466518402,
            0.03640751540660858,
            0.0166919082403183,
            0.01343853771686554,
            0.0730694830417633,
            -0.021088823676109314,
            0.08239501714706421,
            0.12446382641792297,
            -0.019628271460533142,
            -0.09956859052181244,
            0.026974022388458252,
            0.058309510350227356,
            0.06043232977390289,
            -0.11004577577114105,
            -0.015551850199699402,
            -0.004342958331108093,
            0.05035857856273651,
            -0.01741190254688263,
            0.10258817672729492,
            -0.039348095655441284,
            0.08013604581356049,
            -0.11582955718040466,
            0.12314377725124359,
            0.020230084657669067,
            -0.06440000236034393,
            0.08246378600597382,
            -0.04042774438858032,
            -0.07314947247505188,
            -0.051944583654403687,
            0.1190539002418518,
            0.11683188378810883,
            0.029171600937843323,
            -0.014464497566223145,
            -0.0789051502943039,
            -0.04094886779785156,
            -0.12070618569850922,
            -0.1215200126171112,
            0.006549134850502014,
            0.09376472234725952,
            0.010690152645111084,
            -0.10120652616024017,
            -0.03846511244773865,
            0.07673300802707672,
            0.027746587991714478,
            0.022258073091506958,
            -0.11382903158664703,
            -0.03570649027824402,
            0.10456626117229462,
            -0.04750251770019531,
            -0.05746760964393616,
            -0.10391458868980408,
            0.06818845868110657,
            0.03812497854232788,
            -0.015475988388061523,
            0.0901794284582138,
            0.0741993635892868,
            0.0677470713853836,
            0.07198795676231384
          ],
          [
            -0.26950711011886597,
            -0.29758554697036743,
            -0.34084200859069824,
            0.015627145767211914,
            -0.09938269853591919,
            -0.21605710685253143,
            -0.3385971486568451,
            -0.21912218630313873,
            0.04811467230319977,
            -0.33741557598114014,
            0.040991753339767456,
            0.01396605372428894,
            0.09819440543651581,
            0.09506376087665558,
            -0.18077610433101654,
            -0.18018405139446259,
            0.011841446161270142,
            -0.15911337733268738,
            -0.4011465013027191,
            0.09255306422710419,
            0.0949358195066452,
            0.05669902265071869,
            -0.29553961753845215,
            -0.2939414083957672,
            -0.18771743774414062,
            -0.2549000084400177,
            -0.18798576295375824,
            0.040130943059921265,
            0.021042123436927795,
            -0.2035982459783554,
            -0.3733496069908142,
            -0.35663923621177673,
            -0.37835872173309326,
            -0.2839396893978119,
            -0.33303147554397583,
            -0.030237972736358643,
            -0.17384588718414307,
            -0.11848311126232147,
            -0.22408367693424225,
            -0.09528747200965881,
            -0.14694084227085114,
            -0.15517228841781616,
            -0.16338776051998138,
            -0.2930731177330017,
            -0.2817413806915283,
            -0.25438740849494934,
            -0.30589133501052856,
            -0.08778012543916702,
            -0.27592241764068604,
            -0.10466645658016205,
            -0.3213441073894501,
            0.12414486706256866,
            -0.11262496560811996,
            -0.07498707622289658,
            0.0223512202501297,
            -0.22925959527492523,
            -0.08878017961978912,
            -0.344561368227005,
            -0.2409825623035431,
            -0.15439026057720184,
            -0.3311731517314911,
            -0.3727376461029053,
            -0.28085601329803467,
            -0.3948207199573517
          ],
          [
            -0.3024761974811554,
            -0.0672086626291275,
            -0.17239689826965332,
            -0.001529201865196228,
            -0.10026219487190247,
            0.2084326595067978,
            -0.08029244840145111,
            -0.05792760103940964,
            -0.10545371472835541,
            -0.21922461688518524,
            0.09854710102081299,
            0.10775427520275116,
            0.12027408182621002,
            -0.11419788002967834,
            -0.28506410121917725,
            -0.2455373853445053,
            0.061967507004737854,
            -0.2841726243495941,
            -0.16126902401447296,
            0.0745292454957962,
            0.026274949312210083,
            -0.028909415006637573,
            -0.1158033162355423,
            -0.16405819356441498,
            -0.11100956052541733,
            -0.2600013315677643,
            -0.09786521643400192,
            0.012577876448631287,
            -0.0995626449584961,
            0.2148178070783615,
            -0.2655911445617676,
            -0.071638323366642,
            -0.15255647897720337,
            -0.2766207456588745,
            -0.18007835745811462,
            -0.015197157859802246,
            -0.22841908037662506,
            0.0618131048977375,
            -0.2616066634654999,
            -0.10489515960216522,
            -0.15633226931095123,
            -0.17336159944534302,
            -0.16469095647335052,
            0.05677550658583641,
            -0.2628779411315918,
            0.10341692715883255,
            -0.16583040356636047,
            0.07003217190504074,
            0.26299628615379333,
            -0.07978209853172302,
            -0.14993056654930115,
            0.11344315111637115,
            -0.22424960136413574,
            0.28816550970077515,
            -0.1094401627779007,
            -0.16908621788024902,
            0.062284354120492935,
            -0.19631731510162354,
            0.30047592520713806,
            -0.08528922498226166,
            0.19230937957763672,
            -0.23738572001457214,
            -0.11301716417074203,
            -0.27734196186065674
          ],
          [
            0.0780041366815567,
            -0.09320542216300964,
            -0.09866045415401459,
            0.11240255832672119,
            -0.0932464450597763,
            -0.061252787709236145,
            0.020688608288764954,
            -0.008583128452301025,
            0.009691298007965088,
            -0.068813756108284,
            -0.04553647339344025,
            0.121235191822052,
            0.08862636983394623,
            -0.09512960910797119,
            0.0018777996301651,
            -0.0986979752779007,
            0.08656767010688782,
            0.0011440962553024292,
            -0.06437768042087555,
            0.11270846426486969,
            0.06994065642356873,
            -0.020575791597366333,
            -0.042028769850730896,
            0.014951497316360474,
            -0.07951349020004272,
            0.0018053054809570312,
            -0.037925273180007935,
            -0.09647580981254578,
            0.07129696011543274,
            -0.07477760314941406,
            -0.052429988980293274,
            -0.08880442380905151,
            0.024842560291290283,
            0.06280766427516937,
            0.054875776171684265,
            -0.030047670006752014,
            0.017360225319862366,
            -0.09996601939201355,
            -0.11551621556282043,
            -0.038134604692459106,
            -0.09588570892810822,
            -0.030043140053749084,
            0.11758142709732056,
            -0.10043418407440186,
            -0.08655519783496857,
            0.07161904871463776,
            -0.06057949364185333,
            0.04744669795036316,
            -0.018107354640960693,
            -0.10671225190162659,
            0.036990612745285034,
            -0.03384675085544586,
            -0.0746348649263382,
            0.09363023936748505,
            -0.013168901205062866,
            0.037533894181251526,
            -0.002805933356285095,
            -0.08053070306777954,
            0.006798386573791504,
            0.04628434777259827,
            -0.012586027383804321,
            0.009683728218078613,
            0.04134708642959595,
            0.07812610268592834
          ],
          [
            0.005013912916183472,
            -0.015435412526130676,
            -0.07820861041545868,
            -0.04490329325199127,
            -0.055085763335227966,
            -0.056105539202690125,
            -0.08660176396369934,
            -0.0011685341596603394,
            -0.07716019451618195,
            0.016035541892051697,
            0.03393253684043884,
            0.10019248723983765,
            0.004147812724113464,
            0.08867537975311279,
            -0.07774493098258972,
            -0.03632363677024841,
            -0.04846911132335663,
            -0.044154226779937744,
            -0.09773220121860504,
            -0.10691322386264801,
            -0.08883632719516754,
            0.10869468748569489,
            -0.05736824870109558,
            0.05595901608467102,
            0.04050655663013458,
            0.016527265310287476,
            0.023103833198547363,
            -0.022619962692260742,
            -0.04077997803688049,
            0.015111848711967468,
            -0.11597403883934021,
            0.06285567581653595,
            -0.010790467262268066,
            -0.08847181499004364,
            0.11972922086715698,
            -0.09811235964298248,
            -0.044245705008506775,
            0.020069241523742676,
            0.07791340351104736,
            -0.013131529092788696,
            -0.014289245009422302,
            0.09080798923969269,
            0.10144110023975372,
            -0.007999897003173828,
            -0.07384645938873291,
            -0.09363524615764618,
            0.044439464807510376,
            -0.08302927017211914,
            0.04048319160938263,
            0.0021994411945343018,
            0.05081328749656677,
            -0.09088669717311859,
            -0.10986790060997009,
            -0.05394367873668671,
            -0.05123777687549591,
            0.12249217927455902,
            -0.008326441049575806,
            -0.02922224998474121,
            -0.07553686201572418,
            -0.033550143241882324,
            0.035819247364997864,
            -0.07019728422164917,
            0.09885607659816742,
            -0.08087942004203796
          ],
          [
            -0.36121973395347595,
            -0.10108277201652527,
            -0.09865784645080566,
            0.1216135025024414,
            -0.1110495775938034,
            -0.15892429649829865,
            -0.16092808544635773,
            -0.3334307372570038,
            -0.03122253715991974,
            -0.14643162488937378,
            0.013372913002967834,
            0.006950095295906067,
            0.03766900300979614,
            0.08388397097587585,
            -0.16549551486968994,
            -0.045348796993494034,
            -0.028499707579612732,
            -0.16488277912139893,
            -0.08415091037750244,
            0.0469319224357605,
            -0.05468536913394928,
            -0.11793731153011322,
            -0.2109106034040451,
            0.008465312421321869,
            -0.15542151033878326,
            -0.14369116723537445,
            -0.12806932628154755,
            -0.06380917131900787,
            -0.0636645257472992,
            -0.17304901778697968,
            -0.10996610671281815,
            -0.18663029372692108,
            -0.13192817568778992,
            -0.17746318876743317,
            -0.13407856225967407,
            0.004307955503463745,
            -0.31373131275177,
            -0.2260700911283493,
            -0.0629086047410965,
            -0.10045675933361053,
            -0.17237500846385956,
            0.077707938849926,
            -0.25798940658569336,
            -0.2595229148864746,
            -0.1596081256866455,
            -0.1984729915857315,
            -0.1531759351491928,
            -0.0491100549697876,
            -0.26746106147766113,
            -0.07235762476921082,
            -0.07019654661417007,
            -0.07438366115093231,
            0.04419895261526108,
            -0.23772192001342773,
            -0.09581507742404938,
            -0.12812329828739166,
            -0.0561186820268631,
            -0.25227391719818115,
            -0.1970619559288025,
            0.06853344291448593,
            -0.10520496964454651,
            -0.1948646605014801,
            -0.15763124823570251,
            -0.11976609379053116
          ],
          [
            -0.09198960661888123,
            0.06633210182189941,
            -0.028742074966430664,
            -0.07267369329929352,
            0.053707823157310486,
            0.10030892491340637,
            0.09744445979595184,
            0.10124573111534119,
            -0.10596920549869537,
            -0.021802425384521484,
            0.0738370418548584,
            -0.038315072655677795,
            0.1108185201883316,
            -0.04003781080245972,
            0.10227124392986298,
            0.018221750855445862,
            -0.011013403534889221,
            -0.014983296394348145,
            0.03163480758666992,
            0.1079430878162384,
            0.010243669152259827,
            -0.08869260549545288,
            0.07520277798175812,
            0.003595486283302307,
            -0.12031295895576477,
            0.12367786467075348,
            -0.0831434577703476,
            0.09075376391410828,
            -0.10738641023635864,
            0.0045642852783203125,
            0.08798964321613312,
            -0.012225240468978882,
            -0.11236333847045898,
            -0.10634461045265198,
            0.03567519783973694,
            0.007975190877914429,
            0.09870430827140808,
            0.03188188374042511,
            0.0603746622800827,
            0.005842059850692749,
            -0.04493698477745056,
            -0.10570763051509857,
            -0.07063157856464386,
            -0.09234313666820526,
            -0.07940995693206787,
            -0.03891168534755707,
            -0.042519018054008484,
            0.02335013449192047,
            -0.11996796727180481,
            0.06503187119960785,
            0.052388131618499756,
            0.026544377207756042,
            0.0015433579683303833,
            -0.0760674774646759,
            -0.11563453078269958,
            -0.0014505833387374878,
            0.022877097129821777,
            0.010096237063407898,
            0.013288840651512146,
            -0.0867774486541748,
            0.0836830884218216,
            -0.08893707394599915,
            0.09228728711605072,
            -0.10066843032836914
          ],
          [
            -0.2879358232021332,
            0.1754496544599533,
            -0.22734758257865906,
            -0.07968872785568237,
            -0.08116379380226135,
            0.2953084707260132,
            0.07019387930631638,
            -0.14794188737869263,
            0.10019201040267944,
            0.2547312378883362,
            0.113992840051651,
            0.02597542107105255,
            -0.11571228504180908,
            -0.06845109164714813,
            0.19477130472660065,
            -0.22217124700546265,
            0.015224635601043701,
            0.1179855689406395,
            -0.21252840757369995,
            -0.06831476092338562,
            0.012980237603187561,
            -0.09611530601978302,
            0.1320035606622696,
            -0.12708711624145508,
            -0.18347369134426117,
            0.2609293758869171,
            -0.22823497653007507,
            0.09906162321567535,
            -0.023917153477668762,
            0.20907045900821686,
            0.11928357183933258,
            -0.11692775785923004,
            -0.15943574905395508,
            0.2114867866039276,
            0.25342997908592224,
            -0.023552685976028442,
            -0.30480891466140747,
            0.1463167816400528,
            -0.21106325089931488,
            0.10916820168495178,
            -0.16654515266418457,
            -0.11774733662605286,
            -0.11315809935331345,
            0.14573192596435547,
            -0.19898121058940887,
            0.28032007813453674,
            -0.06573916226625443,
            0.17539064586162567,
            0.2993251383304596,
            0.03540121018886566,
            -0.06621526926755905,
            -0.006276369094848633,
            0.2566938102245331,
            0.23460613191127777,
            0.07697461545467377,
            -0.11755882948637009,
            0.26159024238586426,
            -0.18434134125709534,
            0.1552281677722931,
            0.12320135533809662,
            0.1523158848285675,
            -0.16780002415180206,
            0.06348539143800735,
            -0.0881604477763176
          ],
          [
            -0.04291660711169243,
            -0.21182510256767273,
            -0.08436467498540878,
            -0.07945354282855988,
            0.016060009598731995,
            -0.30170387029647827,
            -0.19009657204151154,
            -0.06464838236570358,
            0.0014112144708633423,
            -0.31109440326690674,
            0.06895551085472107,
            -0.117718905210495,
            0.040301159024238586,
            0.06245291233062744,
            -0.07846128940582275,
            -0.16237373650074005,
            0.11376096308231354,
            -0.36249443888664246,
            -0.05507240071892738,
            -0.10970145463943481,
            0.09694421291351318,
            -0.1053461879491806,
            -0.08867145329713821,
            -0.00044850356061942875,
            -0.08572173863649368,
            -0.3667081296443939,
            -0.18260478973388672,
            -0.10480265319347382,
            0.0005003511905670166,
            -0.27240341901779175,
            -0.17258168756961823,
            -0.16203007102012634,
            -0.23511892557144165,
            -0.3464871346950531,
            -0.12884515523910522,
            0.08942088484764099,
            -0.25188228487968445,
            -0.25397002696990967,
            -0.1807759702205658,
            0.09860296547412872,
            -0.17217731475830078,
            -0.051273930817842484,
            -0.18520823121070862,
            -0.22721172869205475,
            -0.027240626513957977,
            -0.34018775820732117,
            -0.1757526695728302,
            -0.20020554959774017,
